<?xml version="1.0" encoding="UTF-8" standalone="yes"?>
<PMML xmlns="http://www.dmg.org/PMML-4_2" version="4.2">
    <Header copyright="Copyright (c) 2015 Easyminer">
        <Application name="EasyMiner-Spark-FPGrowth-AssociationRules" version="0.0.1"/>
        <Timestamp>2015-08-31T15:05:38</Timestamp>
    </Header>
    <AssociationModel functionName="associationRules" algorithmName="FPGrowth" numberOfTransactions="72371" minimumSupport="0.005" minimumConfidence="0.5" numberOfItems="3701" numberOfItemsets="1056" numberOfRules="123">
        <Item id="item_0" value="author(1_000_Places_to_See_Before_You_Die)">
            <Extension name="field" value="author"/>
            <Extension name="value" value="1_000_Places_to_See_Before_You_Die"/>
        </Item>
        <Item id="item_1" value="author(A__A__Milne)">
            <Extension name="field" value="author"/>
            <Extension name="value" value="A__A__Milne"/>
        </Item>
        <Item id="item_2" value="author(A__C__Grayling)">
            <Extension name="field" value="author"/>
            <Extension name="value" value="A__C__Grayling"/>
        </Item>
        <Item id="item_3" value="author(A__E__W__Mason)">
            <Extension name="field" value="author"/>
            <Extension name="value" value="A__E__W__Mason"/>
        </Item>
        <Item id="item_4" value="author(A__E__van_Vogt)">
            <Extension name="field" value="author"/>
            <Extension name="value" value="A__E__van_Vogt"/>
        </Item>
        <Item id="item_5" value="author(A__G__Macdonell)">
            <Extension name="field" value="author"/>
            <Extension name="value" value="A__G__Macdonell"/>
        </Item>
        <Item id="item_6" value="author(A__J__Cronin)">
            <Extension name="field" value="author"/>
            <Extension name="value" value="A__J__Cronin"/>
        </Item>
        <Item id="item_7" value="author(A__Lee_Martinez)">
            <Extension name="field" value="author"/>
            <Extension name="value" value="A__Lee_Martinez"/>
        </Item>
        <Item id="item_8" value="author(A__P__J__Abdul_Kalam)">
            <Extension name="field" value="author"/>
            <Extension name="value" value="A__P__J__Abdul_Kalam"/>
        </Item>
        <Item id="item_9" value="author(A__S__Byatt)">
            <Extension name="field" value="author"/>
            <Extension name="value" value="A__S__Byatt"/>
        </Item>
        <Item id="item_10" value="author(A__Scott_Berg)">
            <Extension name="field" value="author"/>
            <Extension name="value" value="A__Scott_Berg"/>
        </Item>
        <Item id="item_11" value="author(Abha_Dawesar)">
            <Extension name="field" value="author"/>
            <Extension name="value" value="Abha_Dawesar"/>
        </Item>
        <Item id="item_12" value="author(Abraham_Silberschatz)">
            <Extension name="field" value="author"/>
            <Extension name="value" value="Abraham_Silberschatz"/>
        </Item>
        <Item id="item_13" value="author(Adam_Gopnik)">
            <Extension name="field" value="author"/>
            <Extension name="value" value="Adam_Gopnik"/>
        </Item>
        <Item id="item_14" value="author(Adam_Rapp)">
            <Extension name="field" value="author"/>
            <Extension name="value" value="Adam_Rapp"/>
        </Item>
        <Item id="item_15" value="author(Adolf_Hitler)">
            <Extension name="field" value="author"/>
            <Extension name="value" value="Adolf_Hitler"/>
        </Item>
        <Item id="item_16" value="author(Adolfo_Bioy_Casares)">
            <Extension name="field" value="author"/>
            <Extension name="value" value="Adolfo_Bioy_Casares"/>
        </Item>
        <Item id="item_17" value="author(Adrian_Conan_Doyle)">
            <Extension name="field" value="author"/>
            <Extension name="value" value="Adrian_Conan_Doyle"/>
        </Item>
        <Item id="item_18" value="author(Adrian_Desmond)">
            <Extension name="field" value="author"/>
            <Extension name="value" value="Adrian_Desmond"/>
        </Item>
        <Item id="item_19" value="author(Agatha_Christie)">
            <Extension name="field" value="author"/>
            <Extension name="value" value="Agatha_Christie"/>
        </Item>
        <Item id="item_20" value="author(Agnes_Sligh_Turnbull)">
            <Extension name="field" value="author"/>
            <Extension name="value" value="Agnes_Sligh_Turnbull"/>
        </Item>
        <Item id="item_21" value="author(Aidan_Chambers)">
            <Extension name="field" value="author"/>
            <Extension name="value" value="Aidan_Chambers"/>
        </Item>
        <Item id="item_22" value="author(Akemi_Takaido)">
            <Extension name="field" value="author"/>
            <Extension name="value" value="Akemi_Takaido"/>
        </Item>
        <Item id="item_23" value="author(Akira_Amano)">
            <Extension name="field" value="author"/>
            <Extension name="value" value="Akira_Amano"/>
        </Item>
        <Item id="item_24" value="author(Al_Gore)">
            <Extension name="field" value="author"/>
            <Extension name="value" value="Al_Gore"/>
        </Item>
        <Item id="item_25" value="author(Alaa_Al_Aswany)">
            <Extension name="field" value="author"/>
            <Extension name="value" value="Alaa_Al_Aswany"/>
        </Item>
        <Item id="item_26" value="author(Alain_Fournier)">
            <Extension name="field" value="author"/>
            <Extension name="value" value="Alain_Fournier"/>
        </Item>
        <Item id="item_27" value="author(Alain_de_Botton)">
            <Extension name="field" value="author"/>
            <Extension name="value" value="Alain_de_Botton"/>
        </Item>
        <Item id="item_28" value="author(Alan_Booth)">
            <Extension name="field" value="author"/>
            <Extension name="value" value="Alan_Booth"/>
        </Item>
        <Item id="item_29" value="author(Alan_Bullock)">
            <Extension name="field" value="author"/>
            <Extension name="value" value="Alan_Bullock"/>
        </Item>
        <Item id="item_30" value="author(Alan_Dean_Foster)">
            <Extension name="field" value="author"/>
            <Extension name="value" value="Alan_Dean_Foster"/>
        </Item>
        <Item id="item_31" value="author(Alan_Dershowitz)">
            <Extension name="field" value="author"/>
            <Extension name="value" value="Alan_Dershowitz"/>
        </Item>
        <Item id="item_32" value="author(Alan_Duff)">
            <Extension name="field" value="author"/>
            <Extension name="value" value="Alan_Duff"/>
        </Item>
        <Item id="item_33" value="author(Alan_Furst)">
            <Extension name="field" value="author"/>
            <Extension name="value" value="Alan_Furst"/>
        </Item>
        <Item id="item_34" value="author(Alan_Garner)">
            <Extension name="field" value="author"/>
            <Extension name="value" value="Alan_Garner"/>
        </Item>
        <Item id="item_35" value="author(Alan_Hollinghurst)">
            <Extension name="field" value="author"/>
            <Extension name="value" value="Alan_Hollinghurst"/>
        </Item>
        <Item id="item_36" value="author(Alan_Moore)">
            <Extension name="field" value="author"/>
            <Extension name="value" value="Alan_Moore"/>
        </Item>
        <Item id="item_37" value="author(Alan_Paton)">
            <Extension name="field" value="author"/>
            <Extension name="value" value="Alan_Paton"/>
        </Item>
        <Item id="item_38" value="author(Alan_Taylor__historian_)">
            <Extension name="field" value="author"/>
            <Extension name="value" value="Alan_Taylor__historian_"/>
        </Item>
        <Item id="item_39" value="author(Alan_Warner)">
            <Extension name="field" value="author"/>
            <Extension name="value" value="Alan_Warner"/>
        </Item>
        <Item id="item_40" value="author(Alane_Ferguson)">
            <Extension name="field" value="author"/>
            <Extension name="value" value="Alane_Ferguson"/>
        </Item>
        <Item id="item_41" value="author(Alasdair_Gray)">
            <Extension name="field" value="author"/>
            <Extension name="value" value="Alasdair_Gray"/>
        </Item>
        <Item id="item_42" value="author(Alastair_Reynolds)">
            <Extension name="field" value="author"/>
            <Extension name="value" value="Alastair_Reynolds"/>
        </Item>
        <Item id="item_43" value="author(Albert_Camus)">
            <Extension name="field" value="author"/>
            <Extension name="value" value="Albert_Camus"/>
        </Item>
        <Item id="item_44" value="author(Albert_Cohen)">
            <Extension name="field" value="author"/>
            <Extension name="value" value="Albert_Cohen"/>
        </Item>
        <Item id="item_45" value="author(Albert_Facey)">
            <Extension name="field" value="author"/>
            <Extension name="value" value="Albert_Facey"/>
        </Item>
        <Item id="item_46" value="author(Albert_Goldman)">
            <Extension name="field" value="author"/>
            <Extension name="value" value="Albert_Goldman"/>
        </Item>
        <Item id="item_47" value="author(Albert_S_C3_A1nchez_Pi_C3_B1ol)">
            <Extension name="field" value="author"/>
            <Extension name="value" value="Albert_S_C3_A1nchez_Pi_C3_B1ol"/>
        </Item>
        <Item id="item_48" value="author(Albert_S__Hanser)">
            <Extension name="field" value="author"/>
            <Extension name="value" value="Albert_S__Hanser"/>
        </Item>
        <Item id="item_49" value="author(Albert_Schweitzer)">
            <Extension name="field" value="author"/>
            <Extension name="value" value="Albert_Schweitzer"/>
        </Item>
        <Item id="item_50" value="author(Aldo_Leopold)">
            <Extension name="field" value="author"/>
            <Extension name="value" value="Aldo_Leopold"/>
        </Item>
        <Item id="item_51" value="author(Aldous_Huxley)">
            <Extension name="field" value="author"/>
            <Extension name="value" value="Aldous_Huxley"/>
        </Item>
        <Item id="item_52" value="author(Aleister_Crowley)">
            <Extension name="field" value="author"/>
            <Extension name="value" value="Aleister_Crowley"/>
        </Item>
        <Item id="item_53" value="author(Alejo_Carpentier)">
            <Extension name="field" value="author"/>
            <Extension name="value" value="Alejo_Carpentier"/>
        </Item>
        <Item id="item_54" value="author(Aleksandr_Solzhenitsyn)">
            <Extension name="field" value="author"/>
            <Extension name="value" value="Aleksandr_Solzhenitsyn"/>
        </Item>
        <Item id="item_55" value="author(Alex_Flinn)">
            <Extension name="field" value="author"/>
            <Extension name="value" value="Alex_Flinn"/>
        </Item>
        <Item id="item_56" value="author(Alex_S_C3_A1nchez__author_)">
            <Extension name="field" value="author"/>
            <Extension name="value" value="Alex_S_C3_A1nchez__author_"/>
        </Item>
        <Item id="item_57" value="author(Alex_Steffen)">
            <Extension name="field" value="author"/>
            <Extension name="value" value="Alex_Steffen"/>
        </Item>
        <Item id="item_58" value="author(Alexander_McCall_Smith)">
            <Extension name="field" value="author"/>
            <Extension name="value" value="Alexander_McCall_Smith"/>
        </Item>
        <Item id="item_59" value="author(Alexander_Pushkin)">
            <Extension name="field" value="author"/>
            <Extension name="value" value="Alexander_Pushkin"/>
        </Item>
        <Item id="item_60" value="author(Alexandre_Dumas)">
            <Extension name="field" value="author"/>
            <Extension name="value" value="Alexandre_Dumas"/>
        </Item>
        <Item id="item_61" value="author(Alexis_de_Tocqueville)">
            <Extension name="field" value="author"/>
            <Extension name="value" value="Alexis_de_Tocqueville"/>
        </Item>
        <Item id="item_62" value="author(Alfred_Bester)">
            <Extension name="field" value="author"/>
            <Extension name="value" value="Alfred_Bester"/>
        </Item>
        <Item id="item_63" value="author(Alfred_D_C3_B6blin)">
            <Extension name="field" value="author"/>
            <Extension name="value" value="Alfred_D_C3_B6blin"/>
        </Item>
        <Item id="item_64" value="author(Alfred_Jarry)">
            <Extension name="field" value="author"/>
            <Extension name="value" value="Alfred_Jarry"/>
        </Item>
        <Item id="item_65" value="author(Algis_Budrys)">
            <Extension name="field" value="author"/>
            <Extension name="value" value="Algis_Budrys"/>
        </Item>
        <Item id="item_66" value="author(Ali_Smith)">
            <Extension name="field" value="author"/>
            <Extension name="value" value="Ali_Smith"/>
        </Item>
        <Item id="item_67" value="author(Alice_Borchardt)">
            <Extension name="field" value="author"/>
            <Extension name="value" value="Alice_Borchardt"/>
        </Item>
        <Item id="item_68" value="author(Alice_Hoffman)">
            <Extension name="field" value="author"/>
            <Extension name="value" value="Alice_Hoffman"/>
        </Item>
        <Item id="item_69" value="author(Alice_McDermott)">
            <Extension name="field" value="author"/>
            <Extension name="value" value="Alice_McDermott"/>
        </Item>
        <Item id="item_70" value="author(Alice_Sebold)">
            <Extension name="field" value="author"/>
            <Extension name="value" value="Alice_Sebold"/>
        </Item>
        <Item id="item_71" value="author(Alice_Walker)">
            <Extension name="field" value="author"/>
            <Extension name="value" value="Alice_Walker"/>
        </Item>
        <Item id="item_72" value="author(Alison_Bass)">
            <Extension name="field" value="author"/>
            <Extension name="value" value="Alison_Bass"/>
        </Item>
        <Item id="item_73" value="author(Alison_Goodman)">
            <Extension name="field" value="author"/>
            <Extension name="value" value="Alison_Goodman"/>
        </Item>
        <Item id="item_74" value="author(Alistair_MacLean)">
            <Extension name="field" value="author"/>
            <Extension name="value" value="Alistair_MacLean"/>
        </Item>
        <Item id="item_75" value="author(Alistair_MacLeod)">
            <Extension name="field" value="author"/>
            <Extension name="value" value="Alistair_MacLeod"/>
        </Item>
        <Item id="item_76" value="author(Alister_McGrath)">
            <Extension name="field" value="author"/>
            <Extension name="value" value="Alister_McGrath"/>
        </Item>
        <Item id="item_77" value="author(Allan_Bloom)">
            <Extension name="field" value="author"/>
            <Extension name="value" value="Allan_Bloom"/>
        </Item>
        <Item id="item_78" value="author(Allegra_Goodman)">
            <Extension name="field" value="author"/>
            <Extension name="value" value="Allegra_Goodman"/>
        </Item>
        <Item id="item_79" value="author(Allen_Say)">
            <Extension name="field" value="author"/>
            <Extension name="value" value="Allen_Say"/>
        </Item>
        <Item id="item_80" value="author(Ally_Carter)">
            <Extension name="field" value="author"/>
            <Extension name="value" value="Ally_Carter"/>
        </Item>
        <Item id="item_81" value="author(Alma_Routsong)">
            <Extension name="field" value="author"/>
            <Extension name="value" value="Alma_Routsong"/>
        </Item>
        <Item id="item_82" value="author(Alvin_Toffler)">
            <Extension name="field" value="author"/>
            <Extension name="value" value="Alvin_Toffler"/>
        </Item>
        <Item id="item_83" value="author(Am_C3_A9lie_Nothomb)">
            <Extension name="field" value="author"/>
            <Extension name="value" value="Am_C3_A9lie_Nothomb"/>
        </Item>
        <Item id="item_84" value="author(Ambrose_Bierce)">
            <Extension name="field" value="author"/>
            <Extension name="value" value="Ambrose_Bierce"/>
        </Item>
        <Item id="item_85" value="author(Amelia_Atwater_Rhodes)">
            <Extension name="field" value="author"/>
            <Extension name="value" value="Amelia_Atwater_Rhodes"/>
        </Item>
        <Item id="item_86" value="author(Amin_Maalouf)">
            <Extension name="field" value="author"/>
            <Extension name="value" value="Amin_Maalouf"/>
        </Item>
        <Item id="item_87" value="author(Amitav_Ghosh)">
            <Extension name="field" value="author"/>
            <Extension name="value" value="Amitav_Ghosh"/>
        </Item>
        <Item id="item_88" value="author(Amos_Tutuola)">
            <Extension name="field" value="author"/>
            <Extension name="value" value="Amos_Tutuola"/>
        </Item>
        <Item id="item_89" value="author(Amy_Hempel)">
            <Extension name="field" value="author"/>
            <Extension name="value" value="Amy_Hempel"/>
        </Item>
        <Item id="item_90" value="author(Amy_Hill_Hearth)">
            <Extension name="field" value="author"/>
            <Extension name="value" value="Amy_Hill_Hearth"/>
        </Item>
        <Item id="item_91" value="author(Amy_Tan)">
            <Extension name="field" value="author"/>
            <Extension name="value" value="Amy_Tan"/>
        </Item>
        <Item id="item_92" value="author(An_Na)">
            <Extension name="field" value="author"/>
            <Extension name="value" value="An_Na"/>
        </Item>
        <Item id="item_93" value="author(Ana_C3_AFs_Nin)">
            <Extension name="field" value="author"/>
            <Extension name="value" value="Ana_C3_AFs_Nin"/>
        </Item>
        <Item id="item_94" value="author(Anchee_Min)">
            <Extension name="field" value="author"/>
            <Extension name="value" value="Anchee_Min"/>
        </Item>
        <Item id="item_95" value="author(Andr_C3_A9_Gide)">
            <Extension name="field" value="author"/>
            <Extension name="value" value="Andr_C3_A9_Gide"/>
        </Item>
        <Item id="item_96" value="author(Andr_C3_A9_Malraux)">
            <Extension name="field" value="author"/>
            <Extension name="value" value="Andr_C3_A9_Malraux"/>
        </Item>
        <Item id="item_97" value="author(Andre_Dubus_III)">
            <Extension name="field" value="author"/>
            <Extension name="value" value="Andre_Dubus_III"/>
        </Item>
        <Item id="item_98" value="author(Andre_Norton)">
            <Extension name="field" value="author"/>
            <Extension name="value" value="Andre_Norton"/>
        </Item>
        <Item id="item_99" value="author(Andrea_Camilleri)">
            <Extension name="field" value="author"/>
            <Extension name="value" value="Andrea_Camilleri"/>
        </Item>
        <Item id="item_100" value="author(Andrea_White)">
            <Extension name="field" value="author"/>
            <Extension name="value" value="Andrea_White"/>
        </Item>
        <Item id="item_101" value="author(Andreas_Eschbach)">
            <Extension name="field" value="author"/>
            <Extension name="value" value="Andreas_Eschbach"/>
        </Item>
        <Item id="item_102" value="author(Andrew_Clements)">
            <Extension name="field" value="author"/>
            <Extension name="value" value="Andrew_Clements"/>
        </Item>
        <Item id="item_103" value="author(Andrew_Crumey)">
            <Extension name="field" value="author"/>
            <Extension name="value" value="Andrew_Crumey"/>
        </Item>
        <Item id="item_104" value="author(Andrew_McGahan)">
            <Extension name="field" value="author"/>
            <Extension name="value" value="Andrew_McGahan"/>
        </Item>
        <Item id="item_105" value="author(Andrew_Miller__novelist_)">
            <Extension name="field" value="author"/>
            <Extension name="value" value="Andrew_Miller__novelist_"/>
        </Item>
        <Item id="item_106" value="author(Andrew_Vachss)">
            <Extension name="field" value="author"/>
            <Extension name="value" value="Andrew_Vachss"/>
        </Item>
        <Item id="item_107" value="author(Andrey_Kurkov)">
            <Extension name="field" value="author"/>
            <Extension name="value" value="Andrey_Kurkov"/>
        </Item>
        <Item id="item_108" value="author(Andy_Collins__game_designer_)">
            <Extension name="field" value="author"/>
            <Extension name="value" value="Andy_Collins__game_designer_"/>
        </Item>
        <Item id="item_109" value="author(Andy_McNab)">
            <Extension name="field" value="author"/>
            <Extension name="value" value="Andy_McNab"/>
        </Item>
        <Item id="item_110" value="author(Andy_Riley)">
            <Extension name="field" value="author"/>
            <Extension name="value" value="Andy_Riley"/>
        </Item>
        <Item id="item_111" value="author(Angela_Carter)">
            <Extension name="field" value="author"/>
            <Extension name="value" value="Angela_Carter"/>
        </Item>
        <Item id="item_112" value="author(Angela_Johnson__writer_)">
            <Extension name="field" value="author"/>
            <Extension name="value" value="Angela_Johnson__writer_"/>
        </Item>
        <Item id="item_113" value="author(Angie_Sage)">
            <Extension name="field" value="author"/>
            <Extension name="value" value="Angie_Sage"/>
        </Item>
        <Item id="item_114" value="author(Anita_Brookner)">
            <Extension name="field" value="author"/>
            <Extension name="value" value="Anita_Brookner"/>
        </Item>
        <Item id="item_115" value="author(Anita_Desai)">
            <Extension name="field" value="author"/>
            <Extension name="value" value="Anita_Desai"/>
        </Item>
        <Item id="item_116" value="author(Anita_Diamant)">
            <Extension name="field" value="author"/>
            <Extension name="value" value="Anita_Diamant"/>
        </Item>
        <Item id="item_117" value="author(Anita_Loos)">
            <Extension name="field" value="author"/>
            <Extension name="value" value="Anita_Loos"/>
        </Item>
        <Item id="item_118" value="author(Anita_Shreve)">
            <Extension name="field" value="author"/>
            <Extension name="value" value="Anita_Shreve"/>
        </Item>
        <Item id="item_119" value="author(Ann_Brashares)">
            <Extension name="field" value="author"/>
            <Extension name="value" value="Ann_Brashares"/>
        </Item>
        <Item id="item_120" value="author(Ann_C__Crispin)">
            <Extension name="field" value="author"/>
            <Extension name="value" value="Ann_C__Crispin"/>
        </Item>
        <Item id="item_121" value="author(Ann_Coulter)">
            <Extension name="field" value="author"/>
            <Extension name="value" value="Ann_Coulter"/>
        </Item>
        <Item id="item_122" value="author(Ann_M__Martin)">
            <Extension name="field" value="author"/>
            <Extension name="value" value="Ann_M__Martin"/>
        </Item>
        <Item id="item_123" value="author(Ann_Radcliffe)">
            <Extension name="field" value="author"/>
            <Extension name="value" value="Ann_Radcliffe"/>
        </Item>
        <Item id="item_124" value="author(Ann_Rinaldi)">
            <Extension name="field" value="author"/>
            <Extension name="value" value="Ann_Rinaldi"/>
        </Item>
        <Item id="item_125" value="author(Ann_Rule)">
            <Extension name="field" value="author"/>
            <Extension name="value" value="Ann_Rule"/>
        </Item>
        <Item id="item_126" value="author(Ann_Turnbull)">
            <Extension name="field" value="author"/>
            <Extension name="value" value="Ann_Turnbull"/>
        </Item>
        <Item id="item_127" value="author(Anna_Sewell)">
            <Extension name="field" value="author"/>
            <Extension name="value" value="Anna_Sewell"/>
        </Item>
        <Item id="item_128" value="author(Anne_Applebaum)">
            <Extension name="field" value="author"/>
            <Extension name="value" value="Anne_Applebaum"/>
        </Item>
        <Item id="item_129" value="author(Anne_Bront_C3_AB)">
            <Extension name="field" value="author"/>
            <Extension name="value" value="Anne_Bront_C3_AB"/>
        </Item>
        <Item id="item_130" value="author(Anne_Carson)">
            <Extension name="field" value="author"/>
            <Extension name="value" value="Anne_Carson"/>
        </Item>
        <Item id="item_131" value="author(Anne_Donovan__author_)">
            <Extension name="field" value="author"/>
            <Extension name="value" value="Anne_Donovan__author_"/>
        </Item>
        <Item id="item_132" value="author(Anne_Fadiman)">
            <Extension name="field" value="author"/>
            <Extension name="value" value="Anne_Fadiman"/>
        </Item>
        <Item id="item_133" value="author(Anne_Fine)">
            <Extension name="field" value="author"/>
            <Extension name="value" value="Anne_Fine"/>
        </Item>
        <Item id="item_134" value="author(Anne_Frank)">
            <Extension name="field" value="author"/>
            <Extension name="value" value="Anne_Frank"/>
        </Item>
        <Item id="item_135" value="author(Anne_Holm)">
            <Extension name="field" value="author"/>
            <Extension name="value" value="Anne_Holm"/>
        </Item>
        <Item id="item_136" value="author(Anne_McCaffrey)">
            <Extension name="field" value="author"/>
            <Extension name="value" value="Anne_McCaffrey"/>
        </Item>
        <Item id="item_137" value="author(Anne_Perry)">
            <Extension name="field" value="author"/>
            <Extension name="value" value="Anne_Perry"/>
        </Item>
        <Item id="item_138" value="author(Anne_Rice)">
            <Extension name="field" value="author"/>
            <Extension name="value" value="Anne_Rice"/>
        </Item>
        <Item id="item_139" value="author(Anne_Tyler)">
            <Extension name="field" value="author"/>
            <Extension name="value" value="Anne_Tyler"/>
        </Item>
        <Item id="item_140" value="author(Annette_Curtis_Klause)">
            <Extension name="field" value="author"/>
            <Extension name="value" value="Annette_Curtis_Klause"/>
        </Item>
        <Item id="item_141" value="author(Annie_Proulx)">
            <Extension name="field" value="author"/>
            <Extension name="value" value="Annie_Proulx"/>
        </Item>
        <Item id="item_142" value="author(Anonymous_work)">
            <Extension name="field" value="author"/>
            <Extension name="value" value="Anonymous_work"/>
        </Item>
        <Item id="item_143" value="author(Antal_Szerb)">
            <Extension name="field" value="author"/>
            <Extension name="value" value="Antal_Szerb"/>
        </Item>
        <Item id="item_144" value="author(Anthony_Bourdain)">
            <Extension name="field" value="author"/>
            <Extension name="value" value="Anthony_Bourdain"/>
        </Item>
        <Item id="item_145" value="author(Anthony_Burgess)">
            <Extension name="field" value="author"/>
            <Extension name="value" value="Anthony_Burgess"/>
        </Item>
        <Item id="item_146" value="author(Anthony_D__Williams__author_)">
            <Extension name="field" value="author"/>
            <Extension name="value" value="Anthony_D__Williams__author_"/>
        </Item>
        <Item id="item_147" value="author(Anthony_Hope)">
            <Extension name="field" value="author"/>
            <Extension name="value" value="Anthony_Hope"/>
        </Item>
        <Item id="item_148" value="author(Anthony_Horowitz)">
            <Extension name="field" value="author"/>
            <Extension name="value" value="Anthony_Horowitz"/>
        </Item>
        <Item id="item_149" value="author(Anthony_Powell)">
            <Extension name="field" value="author"/>
            <Extension name="value" value="Anthony_Powell"/>
        </Item>
        <Item id="item_150" value="author(Anthony_Shaffer__writer_)">
            <Extension name="field" value="author"/>
            <Extension name="value" value="Anthony_Shaffer__writer_"/>
        </Item>
        <Item id="item_151" value="author(Anthony_Trollope)">
            <Extension name="field" value="author"/>
            <Extension name="value" value="Anthony_Trollope"/>
        </Item>
        <Item id="item_152" value="author(Antoine_de_Saint_Exup_C3_A9ry)">
            <Extension name="field" value="author"/>
            <Extension name="value" value="Antoine_de_Saint_Exup_C3_A9ry"/>
        </Item>
        <Item id="item_153" value="author(Antoinette_Portis)">
            <Extension name="field" value="author"/>
            <Extension name="value" value="Antoinette_Portis"/>
        </Item>
        <Item id="item_154" value="author(Anton_Chekhov)">
            <Extension name="field" value="author"/>
            <Extension name="value" value="Anton_Chekhov"/>
        </Item>
        <Item id="item_155" value="author(Anton_LaVey)">
            <Extension name="field" value="author"/>
            <Extension name="value" value="Anton_LaVey"/>
        </Item>
        <Item id="item_156" value="author(Anton_Myrer)">
            <Extension name="field" value="author"/>
            <Extension name="value" value="Anton_Myrer"/>
        </Item>
        <Item id="item_157" value="author(Antonia_Forest)">
            <Extension name="field" value="author"/>
            <Extension name="value" value="Antonia_Forest"/>
        </Item>
        <Item id="item_158" value="author(Antonio_Negri)">
            <Extension name="field" value="author"/>
            <Extension name="value" value="Antonio_Negri"/>
        </Item>
        <Item id="item_159" value="author(Anurag_Mathur)">
            <Extension name="field" value="author"/>
            <Extension name="value" value="Anurag_Mathur"/>
        </Item>
        <Item id="item_160" value="author(Anya_Seton)">
            <Extension name="field" value="author"/>
            <Extension name="value" value="Anya_Seton"/>
        </Item>
        <Item id="item_161" value="author(Apuleius)">
            <Extension name="field" value="author"/>
            <Extension name="value" value="Apuleius"/>
        </Item>
        <Item id="item_162" value="author(Ardal_O_Hanlon)">
            <Extension name="field" value="author"/>
            <Extension name="value" value="Ardal_O_Hanlon"/>
        </Item>
        <Item id="item_163" value="author(Aristophanes)">
            <Extension name="field" value="author"/>
            <Extension name="value" value="Aristophanes"/>
        </Item>
        <Item id="item_164" value="author(Arlene_Mosel)">
            <Extension name="field" value="author"/>
            <Extension name="value" value="Arlene_Mosel"/>
        </Item>
        <Item id="item_165" value="author(Armistead_Maupin)">
            <Extension name="field" value="author"/>
            <Extension name="value" value="Armistead_Maupin"/>
        </Item>
        <Item id="item_166" value="author(Armstrong_Sperry)">
            <Extension name="field" value="author"/>
            <Extension name="value" value="Armstrong_Sperry"/>
        </Item>
        <Item id="item_167" value="author(Arnaldur_Indri_C3_B0ason)">
            <Extension name="field" value="author"/>
            <Extension name="value" value="Arnaldur_Indri_C3_B0ason"/>
        </Item>
        <Item id="item_168" value="author(Arnold_Bennett)">
            <Extension name="field" value="author"/>
            <Extension name="value" value="Arnold_Bennett"/>
        </Item>
        <Item id="item_169" value="author(Arnold_Lobel)">
            <Extension name="field" value="author"/>
            <Extension name="value" value="Arnold_Lobel"/>
        </Item>
        <Item id="item_170" value="author(Aron_Ralston)">
            <Extension name="field" value="author"/>
            <Extension name="value" value="Aron_Ralston"/>
        </Item>
        <Item id="item_171" value="author(Arthur_C__Clarke)">
            <Extension name="field" value="author"/>
            <Extension name="value" value="Arthur_C__Clarke"/>
        </Item>
        <Item id="item_172" value="author(Arthur_Conan_Doyle)">
            <Extension name="field" value="author"/>
            <Extension name="value" value="Arthur_Conan_Doyle"/>
        </Item>
        <Item id="item_173" value="author(Arthur_Golden)">
            <Extension name="field" value="author"/>
            <Extension name="value" value="Arthur_Golden"/>
        </Item>
        <Item id="item_174" value="author(Arthur_Hailey)">
            <Extension name="field" value="author"/>
            <Extension name="value" value="Arthur_Hailey"/>
        </Item>
        <Item id="item_175" value="author(Arthur_Koestler)">
            <Extension name="field" value="author"/>
            <Extension name="value" value="Arthur_Koestler"/>
        </Item>
        <Item id="item_176" value="author(Arthur_Miller)">
            <Extension name="field" value="author"/>
            <Extension name="value" value="Arthur_Miller"/>
        </Item>
        <Item id="item_177" value="author(Arthur_Ransome)">
            <Extension name="field" value="author"/>
            <Extension name="value" value="Arthur_Ransome"/>
        </Item>
        <Item id="item_178" value="author(Arto_Paasilinna)">
            <Extension name="field" value="author"/>
            <Extension name="value" value="Arto_Paasilinna"/>
        </Item>
        <Item id="item_179" value="author(Arturo_P_C3_A9rez_Reverte)">
            <Extension name="field" value="author"/>
            <Extension name="value" value="Arturo_P_C3_A9rez_Reverte"/>
        </Item>
        <Item id="item_180" value="author(Arundhati_Roy)">
            <Extension name="field" value="author"/>
            <Extension name="value" value="Arundhati_Roy"/>
        </Item>
        <Item id="item_181" value="author(Aryn_Kyle)">
            <Extension name="field" value="author"/>
            <Extension name="value" value="Aryn_Kyle"/>
        </Item>
        <Item id="item_182" value="author(Asa_Earl_Carter)">
            <Extension name="field" value="author"/>
            <Extension name="value" value="Asa_Earl_Carter"/>
        </Item>
        <Item id="item_183" value="author(Ashok_Banker)">
            <Extension name="field" value="author"/>
            <Extension name="value" value="Ashok_Banker"/>
        </Item>
        <Item id="item_184" value="author(Astrid_Lindgren)">
            <Extension name="field" value="author"/>
            <Extension name="value" value="Astrid_Lindgren"/>
        </Item>
        <Item id="item_185" value="author(Audrey_Niffenegger)">
            <Extension name="field" value="author"/>
            <Extension name="value" value="Audrey_Niffenegger"/>
        </Item>
        <Item id="item_186" value="author(Audrey_Penn)">
            <Extension name="field" value="author"/>
            <Extension name="value" value="Audrey_Penn"/>
        </Item>
        <Item id="item_187" value="author(August_Derleth)">
            <Extension name="field" value="author"/>
            <Extension name="value" value="August_Derleth"/>
        </Item>
        <Item id="item_188" value="author(August_Wilson)">
            <Extension name="field" value="author"/>
            <Extension name="value" value="August_Wilson"/>
        </Item>
        <Item id="item_189" value="author(Augusten_Burroughs)">
            <Extension name="field" value="author"/>
            <Extension name="value" value="Augusten_Burroughs"/>
        </Item>
        <Item id="item_190" value="author(Avi__author_)">
            <Extension name="field" value="author"/>
            <Extension name="value" value="Avi__author_"/>
        </Item>
        <Item id="item_191" value="author(Ayelet_Waldman)">
            <Extension name="field" value="author"/>
            <Extension name="value" value="Ayelet_Waldman"/>
        </Item>
        <Item id="item_192" value="author(Ayn_Rand)">
            <Extension name="field" value="author"/>
            <Extension name="value" value="Ayn_Rand"/>
        </Item>
        <Item id="item_193" value="author(B__F__Skinner)">
            <Extension name="field" value="author"/>
            <Extension name="value" value="B__F__Skinner"/>
        </Item>
        <Item id="item_194" value="author(B__S__Johnson)">
            <Extension name="field" value="author"/>
            <Extension name="value" value="B__S__Johnson"/>
        </Item>
        <Item id="item_195" value="author(B__Traven)">
            <Extension name="field" value="author"/>
            <Extension name="value" value="B__Traven"/>
        </Item>
        <Item id="item_196" value="author(Banana_Yoshimoto)">
            <Extension name="field" value="author"/>
            <Extension name="value" value="Banana_Yoshimoto"/>
        </Item>
        <Item id="item_197" value="author(Bao_Ninh)">
            <Extension name="field" value="author"/>
            <Extension name="value" value="Bao_Ninh"/>
        </Item>
        <Item id="item_198" value="author(Barbara_Ann_Kipfer)">
            <Extension name="field" value="author"/>
            <Extension name="value" value="Barbara_Ann_Kipfer"/>
        </Item>
        <Item id="item_199" value="author(Barbara_Branden)">
            <Extension name="field" value="author"/>
            <Extension name="value" value="Barbara_Branden"/>
        </Item>
        <Item id="item_200" value="author(Barbara_Cooney)">
            <Extension name="field" value="author"/>
            <Extension name="value" value="Barbara_Cooney"/>
        </Item>
        <Item id="item_201" value="author(Barbara_Hambly)">
            <Extension name="field" value="author"/>
            <Extension name="value" value="Barbara_Hambly"/>
        </Item>
        <Item id="item_202" value="author(Barbara_Kingsolver)">
            <Extension name="field" value="author"/>
            <Extension name="value" value="Barbara_Kingsolver"/>
        </Item>
        <Item id="item_203" value="author(Barbara_Mertz)">
            <Extension name="field" value="author"/>
            <Extension name="value" value="Barbara_Mertz"/>
        </Item>
        <Item id="item_204" value="author(Barbara_Neely)">
            <Extension name="field" value="author"/>
            <Extension name="value" value="Barbara_Neely"/>
        </Item>
        <Item id="item_205" value="author(Barbara_Paul)">
            <Extension name="field" value="author"/>
            <Extension name="value" value="Barbara_Paul"/>
        </Item>
        <Item id="item_206" value="author(Barbara_Pym)">
            <Extension name="field" value="author"/>
            <Extension name="value" value="Barbara_Pym"/>
        </Item>
        <Item id="item_207" value="author(Barbara_Robinson__author_)">
            <Extension name="field" value="author"/>
            <Extension name="value" value="Barbara_Robinson__author_"/>
        </Item>
        <Item id="item_208" value="author(Barbara_Strachey)">
            <Extension name="field" value="author"/>
            <Extension name="value" value="Barbara_Strachey"/>
        </Item>
        <Item id="item_209" value="author(Barbara_Taylor_Bradford)">
            <Extension name="field" value="author"/>
            <Extension name="value" value="Barbara_Taylor_Bradford"/>
        </Item>
        <Item id="item_210" value="author(Barbara_W__Tuchman)">
            <Extension name="field" value="author"/>
            <Extension name="value" value="Barbara_W__Tuchman"/>
        </Item>
        <Item id="item_211" value="author(Barry_Goldwater)">
            <Extension name="field" value="author"/>
            <Extension name="value" value="Barry_Goldwater"/>
        </Item>
        <Item id="item_212" value="author(Barry_Hines)">
            <Extension name="field" value="author"/>
            <Extension name="value" value="Barry_Hines"/>
        </Item>
        <Item id="item_213" value="author(Barry_Hughart)">
            <Extension name="field" value="author"/>
            <Extension name="value" value="Barry_Hughart"/>
        </Item>
        <Item id="item_214" value="author(Barry_Miles)">
            <Extension name="field" value="author"/>
            <Extension name="value" value="Barry_Miles"/>
        </Item>
        <Item id="item_215" value="author(Barry_Schwartz__psychologist_)">
            <Extension name="field" value="author"/>
            <Extension name="value" value="Barry_Schwartz__psychologist_"/>
        </Item>
        <Item id="item_216" value="author(Barry_Unsworth)">
            <Extension name="field" value="author"/>
            <Extension name="value" value="Barry_Unsworth"/>
        </Item>
        <Item id="item_217" value="author(Bart_D__Ehrman)">
            <Extension name="field" value="author"/>
            <Extension name="value" value="Bart_D__Ehrman"/>
        </Item>
        <Item id="item_218" value="author(Bartolom_C3_A9_de_las_Casas)">
            <Extension name="field" value="author"/>
            <Extension name="value" value="Bartolom_C3_A9_de_las_Casas"/>
        </Item>
        <Item id="item_219" value="author(Basil_Copper)">
            <Extension name="field" value="author"/>
            <Extension name="value" value="Basil_Copper"/>
        </Item>
        <Item id="item_220" value="author(Beatrix_Potter)">
            <Extension name="field" value="author"/>
            <Extension name="value" value="Beatrix_Potter"/>
        </Item>
        <Item id="item_221" value="author(Bel_Kaufman)">
            <Extension name="field" value="author"/>
            <Extension name="value" value="Bel_Kaufman"/>
        </Item>
        <Item id="item_222" value="author(Bell_hooks)">
            <Extension name="field" value="author"/>
            <Extension name="value" value="Bell_hooks"/>
        </Item>
        <Item id="item_223" value="author(Ben_Bova)">
            <Extension name="field" value="author"/>
            <Extension name="value" value="Ben_Bova"/>
        </Item>
        <Item id="item_224" value="author(Ben_Elton)">
            <Extension name="field" value="author"/>
            <Extension name="value" value="Ben_Elton"/>
        </Item>
        <Item id="item_225" value="author(Ben_Mikaelsen)">
            <Extension name="field" value="author"/>
            <Extension name="value" value="Ben_Mikaelsen"/>
        </Item>
        <Item id="item_226" value="author(Ben_Okri)">
            <Extension name="field" value="author"/>
            <Extension name="value" value="Ben_Okri"/>
        </Item>
        <Item id="item_227" value="author(Ben_Rice)">
            <Extension name="field" value="author"/>
            <Extension name="value" value="Ben_Rice"/>
        </Item>
        <Item id="item_228" value="author(Ben_Sherwood)">
            <Extension name="field" value="author"/>
            <Extension name="value" value="Ben_Sherwood"/>
        </Item>
        <Item id="item_229" value="author(Benjamin_Graham)">
            <Extension name="field" value="author"/>
            <Extension name="value" value="Benjamin_Graham"/>
        </Item>
        <Item id="item_230" value="author(Benjamin_Hoff)">
            <Extension name="field" value="author"/>
            <Extension name="value" value="Benjamin_Hoff"/>
        </Item>
        <Item id="item_231" value="author(Berkeley_Breathed)">
            <Extension name="field" value="author"/>
            <Extension name="value" value="Berkeley_Breathed"/>
        </Item>
        <Item id="item_232" value="author(Bernard_Bailyn)">
            <Extension name="field" value="author"/>
            <Extension name="value" value="Bernard_Bailyn"/>
        </Item>
        <Item id="item_233" value="author(Bernard_Cornwell)">
            <Extension name="field" value="author"/>
            <Extension name="value" value="Bernard_Cornwell"/>
        </Item>
        <Item id="item_234" value="author(Bernard_Goldberg)">
            <Extension name="field" value="author"/>
            <Extension name="value" value="Bernard_Goldberg"/>
        </Item>
        <Item id="item_235" value="author(Bernard_Lewis)">
            <Extension name="field" value="author"/>
            <Extension name="value" value="Bernard_Lewis"/>
        </Item>
        <Item id="item_236" value="author(Bernard_Malamud)">
            <Extension name="field" value="author"/>
            <Extension name="value" value="Bernard_Malamud"/>
        </Item>
        <Item id="item_237" value="author(Bernard_Pomerance)">
            <Extension name="field" value="author"/>
            <Extension name="value" value="Bernard_Pomerance"/>
        </Item>
        <Item id="item_238" value="author(Bernard_Werber)">
            <Extension name="field" value="author"/>
            <Extension name="value" value="Bernard_Werber"/>
        </Item>
        <Item id="item_239" value="author(Bernhard_Schlink)">
            <Extension name="field" value="author"/>
            <Extension name="value" value="Bernhard_Schlink"/>
        </Item>
        <Item id="item_240" value="author(Bertolt_Brecht)">
            <Extension name="field" value="author"/>
            <Extension name="value" value="Bertolt_Brecht"/>
        </Item>
        <Item id="item_241" value="author(Bertrand_Russell)">
            <Extension name="field" value="author"/>
            <Extension name="value" value="Bertrand_Russell"/>
        </Item>
        <Item id="item_242" value="author(Beryl_Bainbridge)">
            <Extension name="field" value="author"/>
            <Extension name="value" value="Beryl_Bainbridge"/>
        </Item>
        <Item id="item_243" value="author(Beryl_Markham)">
            <Extension name="field" value="author"/>
            <Extension name="value" value="Beryl_Markham"/>
        </Item>
        <Item id="item_244" value="author(Bette_Greene)">
            <Extension name="field" value="author"/>
            <Extension name="value" value="Bette_Greene"/>
        </Item>
        <Item id="item_245" value="author(Betty_Friedan)">
            <Extension name="field" value="author"/>
            <Extension name="value" value="Betty_Friedan"/>
        </Item>
        <Item id="item_246" value="author(Betty_MacDonald)">
            <Extension name="field" value="author"/>
            <Extension name="value" value="Betty_MacDonald"/>
        </Item>
        <Item id="item_247" value="author(Betty_Ren_Wright)">
            <Extension name="field" value="author"/>
            <Extension name="value" value="Betty_Ren_Wright"/>
        </Item>
        <Item id="item_248" value="author(Betty_Smith)">
            <Extension name="field" value="author"/>
            <Extension name="value" value="Betty_Smith"/>
        </Item>
        <Item id="item_249" value="author(Beverly_Cleary)">
            <Extension name="field" value="author"/>
            <Extension name="value" value="Beverly_Cleary"/>
        </Item>
        <Item id="item_250" value="author(Beverly_LaHaye)">
            <Extension name="field" value="author"/>
            <Extension name="value" value="Beverly_LaHaye"/>
        </Item>
        <Item id="item_251" value="author(Bharati_Mukherjee)">
            <Extension name="field" value="author"/>
            <Extension name="value" value="Bharati_Mukherjee"/>
        </Item>
        <Item id="item_252" value="author(Bill_Bryson)">
            <Extension name="field" value="author"/>
            <Extension name="value" value="Bill_Bryson"/>
        </Item>
        <Item id="item_253" value="author(Bill_Buford)">
            <Extension name="field" value="author"/>
            <Extension name="value" value="Bill_Buford"/>
        </Item>
        <Item id="item_254" value="author(Bill_James)">
            <Extension name="field" value="author"/>
            <Extension name="value" value="Bill_James"/>
        </Item>
        <Item id="item_255" value="author(Bill_Martin__Jr_)">
            <Extension name="field" value="author"/>
            <Extension name="value" value="Bill_Martin__Jr_"/>
        </Item>
        <Item id="item_256" value="author(Bill_McKibben)">
            <Extension name="field" value="author"/>
            <Extension name="value" value="Bill_McKibben"/>
        </Item>
        <Item id="item_257" value="author(Bill_O_Reilly__political_commentator_)">
            <Extension name="field" value="author"/>
            <Extension name="value" value="Bill_O_Reilly__political_commentator_"/>
        </Item>
        <Item id="item_258" value="author(Bill_Ransom)">
            <Extension name="field" value="author"/>
            <Extension name="value" value="Bill_Ransom"/>
        </Item>
        <Item id="item_259" value="author(Bill_Slavicsek)">
            <Extension name="field" value="author"/>
            <Extension name="value" value="Bill_Slavicsek"/>
        </Item>
        <Item id="item_260" value="author(Billie_Letts)">
            <Extension name="field" value="author"/>
            <Extension name="value" value="Billie_Letts"/>
        </Item>
        <Item id="item_261" value="author(Billy_Crystal)">
            <Extension name="field" value="author"/>
            <Extension name="value" value="Billy_Crystal"/>
        </Item>
        <Item id="item_262" value="author(Bj_C3_B8rn_Lomborg)">
            <Extension name="field" value="author"/>
            <Extension name="value" value="Bj_C3_B8rn_Lomborg"/>
        </Item>
        <Item id="item_263" value="author(Bjarne_Stroustrup)">
            <Extension name="field" value="author"/>
            <Extension name="value" value="Bjarne_Stroustrup"/>
        </Item>
        <Item id="item_264" value="author(Blue_Balliett)">
            <Extension name="field" value="author"/>
            <Extension name="value" value="Blue_Balliett"/>
        </Item>
        <Item id="item_265" value="author(Bob_Dylan)">
            <Extension name="field" value="author"/>
            <Extension name="value" value="Bob_Dylan"/>
        </Item>
        <Item id="item_266" value="author(Bob_Spitz)">
            <Extension name="field" value="author"/>
            <Extension name="value" value="Bob_Spitz"/>
        </Item>
        <Item id="item_267" value="author(Bob_Woodward)">
            <Extension name="field" value="author"/>
            <Extension name="value" value="Bob_Woodward"/>
        </Item>
        <Item id="item_268" value="author(Bohumil_Hrabal)">
            <Extension name="field" value="author"/>
            <Extension name="value" value="Bohumil_Hrabal"/>
        </Item>
        <Item id="item_269" value="author(Bola_Agbaje)">
            <Extension name="field" value="author"/>
            <Extension name="value" value="Bola_Agbaje"/>
        </Item>
        <Item id="item_270" value="author(Bonnie_Burnard)">
            <Extension name="field" value="author"/>
            <Extension name="value" value="Bonnie_Burnard"/>
        </Item>
        <Item id="item_271" value="author(Booth_Tarkington)">
            <Extension name="field" value="author"/>
            <Extension name="value" value="Booth_Tarkington"/>
        </Item>
        <Item id="item_272" value="author(Boris_Akunin)">
            <Extension name="field" value="author"/>
            <Extension name="value" value="Boris_Akunin"/>
        </Item>
        <Item id="item_273" value="author(Boris_Pasternak)">
            <Extension name="field" value="author"/>
            <Extension name="value" value="Boris_Pasternak"/>
        </Item>
        <Item id="item_274" value="author(Boris_Vian)">
            <Extension name="field" value="author"/>
            <Extension name="value" value="Boris_Vian"/>
        </Item>
        <Item id="item_275" value="author(Brad_Ferguson)">
            <Extension name="field" value="author"/>
            <Extension name="value" value="Brad_Ferguson"/>
        </Item>
        <Item id="item_276" value="author(Brad_Meltzer)">
            <Extension name="field" value="author"/>
            <Extension name="value" value="Brad_Meltzer"/>
        </Item>
        <Item id="item_277" value="author(Brad_Thor)">
            <Extension name="field" value="author"/>
            <Extension name="value" value="Brad_Thor"/>
        </Item>
        <Item id="item_278" value="author(Bram_Stoker)">
            <Extension name="field" value="author"/>
            <Extension name="value" value="Bram_Stoker"/>
        </Item>
        <Item id="item_279" value="author(Brandon_Mull)">
            <Extension name="field" value="author"/>
            <Extension name="value" value="Brandon_Mull"/>
        </Item>
        <Item id="item_280" value="author(Brandon_Sanderson)">
            <Extension name="field" value="author"/>
            <Extension name="value" value="Brandon_Sanderson"/>
        </Item>
        <Item id="item_281" value="author(Breena_Clarke)">
            <Extension name="field" value="author"/>
            <Extension name="value" value="Breena_Clarke"/>
        </Item>
        <Item id="item_282" value="author(Brenda_Love)">
            <Extension name="field" value="author"/>
            <Extension name="value" value="Brenda_Love"/>
        </Item>
        <Item id="item_283" value="author(Brendan_DuBois)">
            <Extension name="field" value="author"/>
            <Extension name="value" value="Brendan_DuBois"/>
        </Item>
        <Item id="item_284" value="author(Brent_Hartinger)">
            <Extension name="field" value="author"/>
            <Extension name="value" value="Brent_Hartinger"/>
        </Item>
        <Item id="item_285" value="author(Bret_Easton_Ellis)">
            <Extension name="field" value="author"/>
            <Extension name="value" value="Bret_Easton_Ellis"/>
        </Item>
        <Item id="item_286" value="author(Brian_Aldiss)">
            <Extension name="field" value="author"/>
            <Extension name="value" value="Brian_Aldiss"/>
        </Item>
        <Item id="item_287" value="author(Brian_Friel)">
            <Extension name="field" value="author"/>
            <Extension name="value" value="Brian_Friel"/>
        </Item>
        <Item id="item_288" value="author(Brian_Herbert)">
            <Extension name="field" value="author"/>
            <Extension name="value" value="Brian_Herbert"/>
        </Item>
        <Item id="item_289" value="author(Brian_Jacques)">
            <Extension name="field" value="author"/>
            <Extension name="value" value="Brian_Jacques"/>
        </Item>
        <Item id="item_290" value="author(Brian_Keene)">
            <Extension name="field" value="author"/>
            <Extension name="value" value="Brian_Keene"/>
        </Item>
        <Item id="item_291" value="author(Brian_Lumley)">
            <Extension name="field" value="author"/>
            <Extension name="value" value="Brian_Lumley"/>
        </Item>
        <Item id="item_292" value="author(Brian_Moore__novelist_)">
            <Extension name="field" value="author"/>
            <Extension name="value" value="Brian_Moore__novelist_"/>
        </Item>
        <Item id="item_293" value="author(Brian_O_Nolan)">
            <Extension name="field" value="author"/>
            <Extension name="value" value="Brian_O_Nolan"/>
        </Item>
        <Item id="item_294" value="author(Brian_Selznick)">
            <Extension name="field" value="author"/>
            <Extension name="value" value="Brian_Selznick"/>
        </Item>
        <Item id="item_295" value="author(Brother_Lawrence)">
            <Extension name="field" value="author"/>
            <Extension name="value" value="Brother_Lawrence"/>
        </Item>
        <Item id="item_296" value="author(Bruce_Alexander_Cook)">
            <Extension name="field" value="author"/>
            <Extension name="value" value="Bruce_Alexander_Cook"/>
        </Item>
        <Item id="item_297" value="author(Bruce_Bawer)">
            <Extension name="field" value="author"/>
            <Extension name="value" value="Bruce_Bawer"/>
        </Item>
        <Item id="item_298" value="author(Bruce_Catton)">
            <Extension name="field" value="author"/>
            <Extension name="value" value="Bruce_Catton"/>
        </Item>
        <Item id="item_299" value="author(Bruce_Chatwin)">
            <Extension name="field" value="author"/>
            <Extension name="value" value="Bruce_Chatwin"/>
        </Item>
        <Item id="item_300" value="author(Bruce_Cordell)">
            <Extension name="field" value="author"/>
            <Extension name="value" value="Bruce_Cordell"/>
        </Item>
        <Item id="item_301" value="author(Bruce_Coville)">
            <Extension name="field" value="author"/>
            <Extension name="value" value="Bruce_Coville"/>
        </Item>
        <Item id="item_302" value="author(Bruce_Lee)">
            <Extension name="field" value="author"/>
            <Extension name="value" value="Bruce_Lee"/>
        </Item>
        <Item id="item_303" value="author(Bruce_Sterling)">
            <Extension name="field" value="author"/>
            <Extension name="value" value="Bruce_Sterling"/>
        </Item>
        <Item id="item_304" value="author(Bruno_Bettelheim)">
            <Extension name="field" value="author"/>
            <Extension name="value" value="Bruno_Bettelheim"/>
        </Item>
        <Item id="item_305" value="author(Bruno_Schulz)">
            <Extension name="field" value="author"/>
            <Extension name="value" value="Bruno_Schulz"/>
        </Item>
        <Item id="item_306" value="author(Bryan_A__Garner)">
            <Extension name="field" value="author"/>
            <Extension name="value" value="Bryan_A__Garner"/>
        </Item>
        <Item id="item_307" value="author(Bryan_Burrough)">
            <Extension name="field" value="author"/>
            <Extension name="value" value="Bryan_Burrough"/>
        </Item>
        <Item id="item_308" value="author(Bryan_Talbot)">
            <Extension name="field" value="author"/>
            <Extension name="value" value="Bryan_Talbot"/>
        </Item>
        <Item id="item_309" value="author(Bryce_Courtenay)">
            <Extension name="field" value="author"/>
            <Extension name="value" value="Bryce_Courtenay"/>
        </Item>
        <Item id="item_310" value="author(Buchi_Emecheta)">
            <Extension name="field" value="author"/>
            <Extension name="value" value="Buchi_Emecheta"/>
        </Item>
        <Item id="item_311" value="author(Buckminster_Fuller)">
            <Extension name="field" value="author"/>
            <Extension name="value" value="Buckminster_Fuller"/>
        </Item>
        <Item id="item_312" value="author(Budd_Schulberg)">
            <Extension name="field" value="author"/>
            <Extension name="value" value="Budd_Schulberg"/>
        </Item>
        <Item id="item_313" value="author(Burton_Malkiel)">
            <Extension name="field" value="author"/>
            <Extension name="value" value="Burton_Malkiel"/>
        </Item>
        <Item id="item_314" value="author(Buzz_Aldrin)">
            <Extension name="field" value="author"/>
            <Extension name="value" value="Buzz_Aldrin"/>
        </Item>
        <Item id="item_315" value="author(C__D__Payne)">
            <Extension name="field" value="author"/>
            <Extension name="value" value="C__D__Payne"/>
        </Item>
        <Item id="item_316" value="author(C__Dale_Brittain)">
            <Extension name="field" value="author"/>
            <Extension name="value" value="C__Dale_Brittain"/>
        </Item>
        <Item id="item_317" value="author(C__J__Cherryh)">
            <Extension name="field" value="author"/>
            <Extension name="value" value="C__J__Cherryh"/>
        </Item>
        <Item id="item_318" value="author(C__J__Sansom)">
            <Extension name="field" value="author"/>
            <Extension name="value" value="C__J__Sansom"/>
        </Item>
        <Item id="item_319" value="author(C__L__R__James)">
            <Extension name="field" value="author"/>
            <Extension name="value" value="C__L__R__James"/>
        </Item>
        <Item id="item_320" value="author(C__S__Forester)">
            <Extension name="field" value="author"/>
            <Extension name="value" value="C__S__Forester"/>
        </Item>
        <Item id="item_321" value="author(C__S__Godshalk)">
            <Extension name="field" value="author"/>
            <Extension name="value" value="C__S__Godshalk"/>
        </Item>
        <Item id="item_322" value="author(C__S__Lewis)">
            <Extension name="field" value="author"/>
            <Extension name="value" value="C__S__Lewis"/>
        </Item>
        <Item id="item_323" value="author(Caleb_Carr)">
            <Extension name="field" value="author"/>
            <Extension name="value" value="Caleb_Carr"/>
        </Item>
        <Item id="item_324" value="author(Candace_Bushnell)">
            <Extension name="field" value="author"/>
            <Extension name="value" value="Candace_Bushnell"/>
        </Item>
        <Item id="item_325" value="author(Cao_Xueqin)">
            <Extension name="field" value="author"/>
            <Extension name="value" value="Cao_Xueqin"/>
        </Item>
        <Item id="item_326" value="author(Carl_Bernstein)">
            <Extension name="field" value="author"/>
            <Extension name="value" value="Carl_Bernstein"/>
        </Item>
        <Item id="item_327" value="author(Carl_Hiaasen)">
            <Extension name="field" value="author"/>
            <Extension name="value" value="Carl_Hiaasen"/>
        </Item>
        <Item id="item_328" value="author(Carl_Jung)">
            <Extension name="field" value="author"/>
            <Extension name="value" value="Carl_Jung"/>
        </Item>
        <Item id="item_329" value="author(Carl_Sagan)">
            <Extension name="field" value="author"/>
            <Extension name="value" value="Carl_Sagan"/>
        </Item>
        <Item id="item_330" value="author(Carl_Sandburg)">
            <Extension name="field" value="author"/>
            <Extension name="value" value="Carl_Sandburg"/>
        </Item>
        <Item id="item_331" value="author(Carl_Schmitt)">
            <Extension name="field" value="author"/>
            <Extension name="value" value="Carl_Schmitt"/>
        </Item>
        <Item id="item_332" value="author(Carlos_Castaneda)">
            <Extension name="field" value="author"/>
            <Extension name="value" value="Carlos_Castaneda"/>
        </Item>
        <Item id="item_333" value="author(Carlos_Fuentes)">
            <Extension name="field" value="author"/>
            <Extension name="value" value="Carlos_Fuentes"/>
        </Item>
        <Item id="item_334" value="author(Carlos_Ruiz_Zaf_C3_B3n)">
            <Extension name="field" value="author"/>
            <Extension name="value" value="Carlos_Ruiz_Zaf_C3_B3n"/>
        </Item>
        <Item id="item_335" value="author(Carol_Goodman)">
            <Extension name="field" value="author"/>
            <Extension name="value" value="Carol_Goodman"/>
        </Item>
        <Item id="item_336" value="author(Carol_Matas)">
            <Extension name="field" value="author"/>
            <Extension name="value" value="Carol_Matas"/>
        </Item>
        <Item id="item_337" value="author(Carol_O_Connell)">
            <Extension name="field" value="author"/>
            <Extension name="value" value="Carol_O_Connell"/>
        </Item>
        <Item id="item_338" value="author(Carol_Ryrie_Brink)">
            <Extension name="field" value="author"/>
            <Extension name="value" value="Carol_Ryrie_Brink"/>
        </Item>
        <Item id="item_339" value="author(Carol_Shields)">
            <Extension name="field" value="author"/>
            <Extension name="value" value="Carol_Shields"/>
        </Item>
        <Item id="item_340" value="author(Caroline_B__Cooney)">
            <Extension name="field" value="author"/>
            <Extension name="value" value="Caroline_B__Cooney"/>
        </Item>
        <Item id="item_341" value="author(Carolyn_Keene)">
            <Extension name="field" value="author"/>
            <Extension name="value" value="Carolyn_Keene"/>
        </Item>
        <Item id="item_342" value="author(Carolyn_Mackler)">
            <Extension name="field" value="author"/>
            <Extension name="value" value="Carolyn_Mackler"/>
        </Item>
        <Item id="item_343" value="author(Carolyn_Parkhurst)">
            <Extension name="field" value="author"/>
            <Extension name="value" value="Carolyn_Parkhurst"/>
        </Item>
        <Item id="item_344" value="author(Carolyn_Sherwin_Bailey)">
            <Extension name="field" value="author"/>
            <Extension name="value" value="Carolyn_Sherwin_Bailey"/>
        </Item>
        <Item id="item_345" value="author(Carrie_Fisher)">
            <Extension name="field" value="author"/>
            <Extension name="value" value="Carrie_Fisher"/>
        </Item>
        <Item id="item_346" value="author(Carson_McCullers)">
            <Extension name="field" value="author"/>
            <Extension name="value" value="Carson_McCullers"/>
        </Item>
        <Item id="item_347" value="author(Cassandra_Clare)">
            <Extension name="field" value="author"/>
            <Extension name="value" value="Cassandra_Clare"/>
        </Item>
        <Item id="item_348" value="author(Catherine_Asaro)">
            <Extension name="field" value="author"/>
            <Extension name="value" value="Catherine_Asaro"/>
        </Item>
        <Item id="item_349" value="author(Catherine_Millet)">
            <Extension name="field" value="author"/>
            <Extension name="value" value="Catherine_Millet"/>
        </Item>
        <Item id="item_350" value="author(Catherine_Storr)">
            <Extension name="field" value="author"/>
            <Extension name="value" value="Catherine_Storr"/>
        </Item>
        <Item id="item_351" value="author(Cecelia_Ahern)">
            <Extension name="field" value="author"/>
            <Extension name="value" value="Cecelia_Ahern"/>
        </Item>
        <Item id="item_352" value="author(Cecilia_Dart_Thornton)">
            <Extension name="field" value="author"/>
            <Extension name="value" value="Cecilia_Dart_Thornton"/>
        </Item>
        <Item id="item_353" value="author(Cecily_von_Ziegesar)">
            <Extension name="field" value="author"/>
            <Extension name="value" value="Cecily_von_Ziegesar"/>
        </Item>
        <Item id="item_354" value="author(Cees_Nooteboom)">
            <Extension name="field" value="author"/>
            <Extension name="value" value="Cees_Nooteboom"/>
        </Item>
        <Item id="item_355" value="author(Celia_S__Friedman)">
            <Extension name="field" value="author"/>
            <Extension name="value" value="Celia_S__Friedman"/>
        </Item>
        <Item id="item_356" value="author(Ch_C3_B6gyam_Trungpa)">
            <Extension name="field" value="author"/>
            <Extension name="value" value="Ch_C3_B6gyam_Trungpa"/>
        </Item>
        <Item id="item_357" value="author(Chaim_Potok)">
            <Extension name="field" value="author"/>
            <Extension name="value" value="Chaim_Potok"/>
        </Item>
        <Item id="item_358" value="author(Chang_Rae_Lee)">
            <Extension name="field" value="author"/>
            <Extension name="value" value="Chang_Rae_Lee"/>
        </Item>
        <Item id="item_359" value="author(Charlaine_Harris)">
            <Extension name="field" value="author"/>
            <Extension name="value" value="Charlaine_Harris"/>
        </Item>
        <Item id="item_360" value="author(Charles_A__Beard)">
            <Extension name="field" value="author"/>
            <Extension name="value" value="Charles_A__Beard"/>
        </Item>
        <Item id="item_361" value="author(Charles_Bukowski)">
            <Extension name="field" value="author"/>
            <Extension name="value" value="Charles_Bukowski"/>
        </Item>
        <Item id="item_362" value="author(Charles_C__Mann)">
            <Extension name="field" value="author"/>
            <Extension name="value" value="Charles_C__Mann"/>
        </Item>
        <Item id="item_363" value="author(Charles_Darwin)">
            <Extension name="field" value="author"/>
            <Extension name="value" value="Charles_Darwin"/>
        </Item>
        <Item id="item_364" value="author(Charles_Dickens)">
            <Extension name="field" value="author"/>
            <Extension name="value" value="Charles_Dickens"/>
        </Item>
        <Item id="item_365" value="author(Charles_Eric_Maine)">
            <Extension name="field" value="author"/>
            <Extension name="value" value="Charles_Eric_Maine"/>
        </Item>
        <Item id="item_366" value="author(Charles_Fort)">
            <Extension name="field" value="author"/>
            <Extension name="value" value="Charles_Fort"/>
        </Item>
        <Item id="item_367" value="author(Charles_Hawes)">
            <Extension name="field" value="author"/>
            <Extension name="value" value="Charles_Hawes"/>
        </Item>
        <Item id="item_368" value="author(Charles_Palliser)">
            <Extension name="field" value="author"/>
            <Extension name="value" value="Charles_Palliser"/>
        </Item>
        <Item id="item_369" value="author(Charles_Perrault)">
            <Extension name="field" value="author"/>
            <Extension name="value" value="Charles_Perrault"/>
        </Item>
        <Item id="item_370" value="author(Charles_Petzold)">
            <Extension name="field" value="author"/>
            <Extension name="value" value="Charles_Petzold"/>
        </Item>
        <Item id="item_371" value="author(Charles_R__Johnson)">
            <Extension name="field" value="author"/>
            <Extension name="value" value="Charles_R__Johnson"/>
        </Item>
        <Item id="item_372" value="author(Charles_Sheldon)">
            <Extension name="field" value="author"/>
            <Extension name="value" value="Charles_Sheldon"/>
        </Item>
        <Item id="item_373" value="author(Charles_Stross)">
            <Extension name="field" value="author"/>
            <Extension name="value" value="Charles_Stross"/>
        </Item>
        <Item id="item_374" value="author(Charles_W__Chesnutt)">
            <Extension name="field" value="author"/>
            <Extension name="value" value="Charles_W__Chesnutt"/>
        </Item>
        <Item id="item_375" value="author(Charles_Williams__British_writer_)">
            <Extension name="field" value="author"/>
            <Extension name="value" value="Charles_Williams__British_writer_"/>
        </Item>
        <Item id="item_376" value="author(Charles_de_Lint)">
            <Extension name="field" value="author"/>
            <Extension name="value" value="Charles_de_Lint"/>
        </Item>
        <Item id="item_377" value="author(Charlie_Higson)">
            <Extension name="field" value="author"/>
            <Extension name="value" value="Charlie_Higson"/>
        </Item>
        <Item id="item_378" value="author(Charlie_Huston)">
            <Extension name="field" value="author"/>
            <Extension name="value" value="Charlie_Huston"/>
        </Item>
        <Item id="item_379" value="author(Charlotte_Bront_C3_AB)">
            <Extension name="field" value="author"/>
            <Extension name="value" value="Charlotte_Bront_C3_AB"/>
        </Item>
        <Item id="item_380" value="author(Charlotte_Delbo)">
            <Extension name="field" value="author"/>
            <Extension name="value" value="Charlotte_Delbo"/>
        </Item>
        <Item id="item_381" value="author(Charlotte_Perkins_Gilman)">
            <Extension name="field" value="author"/>
            <Extension name="value" value="Charlotte_Perkins_Gilman"/>
        </Item>
        <Item id="item_382" value="author(Che_Guevara)">
            <Extension name="field" value="author"/>
            <Extension name="value" value="Che_Guevara"/>
        </Item>
        <Item id="item_383" value="author(Chester_Himes)">
            <Extension name="field" value="author"/>
            <Extension name="value" value="Chester_Himes"/>
        </Item>
        <Item id="item_384" value="author(Chimamanda_Ngozi_Adichie)">
            <Extension name="field" value="author"/>
            <Extension name="value" value="Chimamanda_Ngozi_Adichie"/>
        </Item>
        <Item id="item_385" value="author(China_Mi_C3_A9ville)">
            <Extension name="field" value="author"/>
            <Extension name="value" value="China_Mi_C3_A9ville"/>
        </Item>
        <Item id="item_386" value="author(Chinua_Achebe)">
            <Extension name="field" value="author"/>
            <Extension name="value" value="Chinua_Achebe"/>
        </Item>
        <Item id="item_387" value="author(Chitra_Banerjee_Divakaruni)">
            <Extension name="field" value="author"/>
            <Extension name="value" value="Chitra_Banerjee_Divakaruni"/>
        </Item>
        <Item id="item_388" value="author(Chris_Abani)">
            <Extension name="field" value="author"/>
            <Extension name="value" value="Chris_Abani"/>
        </Item>
        <Item id="item_389" value="author(Chris_Adrian)">
            <Extension name="field" value="author"/>
            <Extension name="value" value="Chris_Adrian"/>
        </Item>
        <Item id="item_390" value="author(Chris_Crutcher)">
            <Extension name="field" value="author"/>
            <Extension name="value" value="Chris_Crutcher"/>
        </Item>
        <Item id="item_391" value="author(Chris_Elliott)">
            <Extension name="field" value="author"/>
            <Extension name="value" value="Chris_Elliott"/>
        </Item>
        <Item id="item_392" value="author(Chris_Hedges)">
            <Extension name="field" value="author"/>
            <Extension name="value" value="Chris_Hedges"/>
        </Item>
        <Item id="item_393" value="author(Chris_Lynch)">
            <Extension name="field" value="author"/>
            <Extension name="value" value="Chris_Lynch"/>
        </Item>
        <Item id="item_394" value="author(Chris_Riddell)">
            <Extension name="field" value="author"/>
            <Extension name="value" value="Chris_Riddell"/>
        </Item>
        <Item id="item_395" value="author(Chris_Van_Allsburg)">
            <Extension name="field" value="author"/>
            <Extension name="value" value="Chris_Van_Allsburg"/>
        </Item>
        <Item id="item_396" value="author(Chris_Wooding)">
            <Extension name="field" value="author"/>
            <Extension name="value" value="Chris_Wooding"/>
        </Item>
        <Item id="item_397" value="author(Christa_Wolf)">
            <Extension name="field" value="author"/>
            <Extension name="value" value="Christa_Wolf"/>
        </Item>
        <Item id="item_398" value="author(Christie_Golden)">
            <Extension name="field" value="author"/>
            <Extension name="value" value="Christie_Golden"/>
        </Item>
        <Item id="item_399" value="author(Christina_Crawford)">
            <Extension name="field" value="author"/>
            <Extension name="value" value="Christina_Crawford"/>
        </Item>
        <Item id="item_400" value="author(Christina_Schwarz)">
            <Extension name="field" value="author"/>
            <Extension name="value" value="Christina_Schwarz"/>
        </Item>
        <Item id="item_401" value="author(Christina_Stead)">
            <Extension name="field" value="author"/>
            <Extension name="value" value="Christina_Stead"/>
        </Item>
        <Item id="item_402" value="author(Christine_Feehan)">
            <Extension name="field" value="author"/>
            <Extension name="value" value="Christine_Feehan"/>
        </Item>
        <Item id="item_403" value="author(Christopher_Alexander)">
            <Extension name="field" value="author"/>
            <Extension name="value" value="Christopher_Alexander"/>
        </Item>
        <Item id="item_404" value="author(Christopher_Bram)">
            <Extension name="field" value="author"/>
            <Extension name="value" value="Christopher_Bram"/>
        </Item>
        <Item id="item_405" value="author(Christopher_Brookmyre)">
            <Extension name="field" value="author"/>
            <Extension name="value" value="Christopher_Brookmyre"/>
        </Item>
        <Item id="item_406" value="author(Christopher_Buckley__novelist_)">
            <Extension name="field" value="author"/>
            <Extension name="value" value="Christopher_Buckley__novelist_"/>
        </Item>
        <Item id="item_407" value="author(Christopher_Golden)">
            <Extension name="field" value="author"/>
            <Extension name="value" value="Christopher_Golden"/>
        </Item>
        <Item id="item_408" value="author(Christopher_Hitchens)">
            <Extension name="field" value="author"/>
            <Extension name="value" value="Christopher_Hitchens"/>
        </Item>
        <Item id="item_409" value="author(Christopher_Isherwood)">
            <Extension name="field" value="author"/>
            <Extension name="value" value="Christopher_Isherwood"/>
        </Item>
        <Item id="item_410" value="author(Christopher_Koch)">
            <Extension name="field" value="author"/>
            <Extension name="value" value="Christopher_Koch"/>
        </Item>
        <Item id="item_411" value="author(Christopher_Marlowe)">
            <Extension name="field" value="author"/>
            <Extension name="value" value="Christopher_Marlowe"/>
        </Item>
        <Item id="item_412" value="author(Christopher_Morley)">
            <Extension name="field" value="author"/>
            <Extension name="value" value="Christopher_Morley"/>
        </Item>
        <Item id="item_413" value="author(Christopher_Paolini)">
            <Extension name="field" value="author"/>
            <Extension name="value" value="Christopher_Paolini"/>
        </Item>
        <Item id="item_414" value="author(Christopher_Paul_Curtis)">
            <Extension name="field" value="author"/>
            <Extension name="value" value="Christopher_Paul_Curtis"/>
        </Item>
        <Item id="item_415" value="author(Christopher_Priest__novelist_)">
            <Extension name="field" value="author"/>
            <Extension name="value" value="Christopher_Priest__novelist_"/>
        </Item>
        <Item id="item_416" value="author(Christopher_Tolkien)">
            <Extension name="field" value="author"/>
            <Extension name="value" value="Christopher_Tolkien"/>
        </Item>
        <Item id="item_417" value="author(Chuck_Klosterman)">
            <Extension name="field" value="author"/>
            <Extension name="value" value="Chuck_Klosterman"/>
        </Item>
        <Item id="item_418" value="author(Chuck_Palahniuk)">
            <Extension name="field" value="author"/>
            <Extension name="value" value="Chuck_Palahniuk"/>
        </Item>
        <Item id="item_419" value="author(Claire_Messud)">
            <Extension name="field" value="author"/>
            <Extension name="value" value="Claire_Messud"/>
        </Item>
        <Item id="item_420" value="author(Clamp__manga_artists_)">
            <Extension name="field" value="author"/>
            <Extension name="value" value="Clamp__manga_artists_"/>
        </Item>
        <Item id="item_421" value="author(Clarice_Lispector)">
            <Extension name="field" value="author"/>
            <Extension name="value" value="Clarice_Lispector"/>
        </Item>
        <Item id="item_422" value="author(Clark_Ashton_Smith)">
            <Extension name="field" value="author"/>
            <Extension name="value" value="Clark_Ashton_Smith"/>
        </Item>
        <Item id="item_423" value="author(Claude_Brown)">
            <Extension name="field" value="author"/>
            <Extension name="value" value="Claude_Brown"/>
        </Item>
        <Item id="item_424" value="author(Claude_L_C3_A9vi_Strauss)">
            <Extension name="field" value="author"/>
            <Extension name="value" value="Claude_L_C3_A9vi_Strauss"/>
        </Item>
        <Item id="item_425" value="author(Cleveland_Amory)">
            <Extension name="field" value="author"/>
            <Extension name="value" value="Cleveland_Amory"/>
        </Item>
        <Item id="item_426" value="author(Clifford_Geertz)">
            <Extension name="field" value="author"/>
            <Extension name="value" value="Clifford_Geertz"/>
        </Item>
        <Item id="item_427" value="author(Clifford_Stoll)">
            <Extension name="field" value="author"/>
            <Extension name="value" value="Clifford_Stoll"/>
        </Item>
        <Item id="item_428" value="author(Clifton_Fadiman)">
            <Extension name="field" value="author"/>
            <Extension name="value" value="Clifton_Fadiman"/>
        </Item>
        <Item id="item_429" value="author(Clive_Barker)">
            <Extension name="field" value="author"/>
            <Extension name="value" value="Clive_Barker"/>
        </Item>
        <Item id="item_430" value="author(Clive_Cussler)">
            <Extension name="field" value="author"/>
            <Extension name="value" value="Clive_Cussler"/>
        </Item>
        <Item id="item_431" value="author(Clive_King)">
            <Extension name="field" value="author"/>
            <Extension name="value" value="Clive_King"/>
        </Item>
        <Item id="item_432" value="author(Colby_Buzzell)">
            <Extension name="field" value="author"/>
            <Extension name="value" value="Colby_Buzzell"/>
        </Item>
        <Item id="item_433" value="author(Colin_Bateman)">
            <Extension name="field" value="author"/>
            <Extension name="value" value="Colin_Bateman"/>
        </Item>
        <Item id="item_434" value="author(Colin_Cotterill)">
            <Extension name="field" value="author"/>
            <Extension name="value" value="Colin_Cotterill"/>
        </Item>
        <Item id="item_435" value="author(Colin_Dexter)">
            <Extension name="field" value="author"/>
            <Extension name="value" value="Colin_Dexter"/>
        </Item>
        <Item id="item_436" value="author(Colin_MacInnes)">
            <Extension name="field" value="author"/>
            <Extension name="value" value="Colin_MacInnes"/>
        </Item>
        <Item id="item_437" value="author(Colleen_McCullough)">
            <Extension name="field" value="author"/>
            <Extension name="value" value="Colleen_McCullough"/>
        </Item>
        <Item id="item_438" value="author(Colm_T_C3_B3ib_C3_ADn)">
            <Extension name="field" value="author"/>
            <Extension name="value" value="Colm_T_C3_B3ib_C3_ADn"/>
        </Item>
        <Item id="item_439" value="author(Colson_Whitehead)">
            <Extension name="field" value="author"/>
            <Extension name="value" value="Colson_Whitehead"/>
        </Item>
        <Item id="item_440" value="author(Colum_McCann)">
            <Extension name="field" value="author"/>
            <Extension name="value" value="Colum_McCann"/>
        </Item>
        <Item id="item_441" value="author(Conn_Iggulden)">
            <Extension name="field" value="author"/>
            <Extension name="value" value="Conn_Iggulden"/>
        </Item>
        <Item id="item_442" value="author(Conrad_Richter)">
            <Extension name="field" value="author"/>
            <Extension name="value" value="Conrad_Richter"/>
        </Item>
        <Item id="item_443" value="author(Cordwainer_Smith)">
            <Extension name="field" value="author"/>
            <Extension name="value" value="Cordwainer_Smith"/>
        </Item>
        <Item id="item_444" value="author(Cormac_McCarthy)">
            <Extension name="field" value="author"/>
            <Extension name="value" value="Cormac_McCarthy"/>
        </Item>
        <Item id="item_445" value="author(Cornel_West)">
            <Extension name="field" value="author"/>
            <Extension name="value" value="Cornel_West"/>
        </Item>
        <Item id="item_446" value="author(Cornelia_Funke)">
            <Extension name="field" value="author"/>
            <Extension name="value" value="Cornelia_Funke"/>
        </Item>
        <Item id="item_447" value="author(Cornelia_Otis_Skinner)">
            <Extension name="field" value="author"/>
            <Extension name="value" value="Cornelia_Otis_Skinner"/>
        </Item>
        <Item id="item_448" value="author(Cornelius_Ryan)">
            <Extension name="field" value="author"/>
            <Extension name="value" value="Cornelius_Ryan"/>
        </Item>
        <Item id="item_449" value="author(Cory_Doctorow)">
            <Extension name="field" value="author"/>
            <Extension name="value" value="Cory_Doctorow"/>
        </Item>
        <Item id="item_450" value="author(Courtney_Love)">
            <Extension name="field" value="author"/>
            <Extension name="value" value="Courtney_Love"/>
        </Item>
        <Item id="item_451" value="author(Craig_Clevenger)">
            <Extension name="field" value="author"/>
            <Extension name="value" value="Craig_Clevenger"/>
        </Item>
        <Item id="item_452" value="author(Craig_Dirgo)">
            <Extension name="field" value="author"/>
            <Extension name="value" value="Craig_Dirgo"/>
        </Item>
        <Item id="item_453" value="author(Craig_Thompson)">
            <Extension name="field" value="author"/>
            <Extension name="value" value="Craig_Thompson"/>
        </Item>
        <Item id="item_454" value="author(Crane_Brinton)">
            <Extension name="field" value="author"/>
            <Extension name="value" value="Crane_Brinton"/>
        </Item>
        <Item id="item_455" value="author(Crockett_Johnson)">
            <Extension name="field" value="author"/>
            <Extension name="value" value="Crockett_Johnson"/>
        </Item>
        <Item id="item_456" value="author(Cynthia_Kadohata)">
            <Extension name="field" value="author"/>
            <Extension name="value" value="Cynthia_Kadohata"/>
        </Item>
        <Item id="item_457" value="author(Cynthia_Voigt)">
            <Extension name="field" value="author"/>
            <Extension name="value" value="Cynthia_Voigt"/>
        </Item>
        <Item id="item_458" value="author(Cyril_M__Kornbluth)">
            <Extension name="field" value="author"/>
            <Extension name="value" value="Cyril_M__Kornbluth"/>
        </Item>
        <Item id="item_459" value="author(Czes_C5_82aw_Mi_C5_82osz)">
            <Extension name="field" value="author"/>
            <Extension name="value" value="Czes_C5_82aw_Mi_C5_82osz"/>
        </Item>
        <Item id="item_460" value="author(DBC_Pierre)">
            <Extension name="field" value="author"/>
            <Extension name="value" value="DBC_Pierre"/>
        </Item>
        <Item id="item_461" value="author(D__C__Fontana)">
            <Extension name="field" value="author"/>
            <Extension name="value" value="D__C__Fontana"/>
        </Item>
        <Item id="item_462" value="author(D__H__Lawrence)">
            <Extension name="field" value="author"/>
            <Extension name="value" value="D__H__Lawrence"/>
        </Item>
        <Item id="item_463" value="author(D__J__MacHale)">
            <Extension name="field" value="author"/>
            <Extension name="value" value="D__J__MacHale"/>
        </Item>
        <Item id="item_464" value="author(D__T__Suzuki)">
            <Extension name="field" value="author"/>
            <Extension name="value" value="D__T__Suzuki"/>
        </Item>
        <Item id="item_465" value="author(Dai_Sijie)">
            <Extension name="field" value="author"/>
            <Extension name="value" value="Dai_Sijie"/>
        </Item>
        <Item id="item_466" value="author(Dale_Brown)">
            <Extension name="field" value="author"/>
            <Extension name="value" value="Dale_Brown"/>
        </Item>
        <Item id="item_467" value="author(Dale_Carnegie)">
            <Extension name="field" value="author"/>
            <Extension name="value" value="Dale_Carnegie"/>
        </Item>
        <Item id="item_468" value="author(Dale_Peck)">
            <Extension name="field" value="author"/>
            <Extension name="value" value="Dale_Peck"/>
        </Item>
        <Item id="item_469" value="author(Dale_Wasserman)">
            <Extension name="field" value="author"/>
            <Extension name="value" value="Dale_Wasserman"/>
        </Item>
        <Item id="item_470" value="author(Dalton_Trumbo)">
            <Extension name="field" value="author"/>
            <Extension name="value" value="Dalton_Trumbo"/>
        </Item>
        <Item id="item_471" value="author(Damian_Conway)">
            <Extension name="field" value="author"/>
            <Extension name="value" value="Damian_Conway"/>
        </Item>
        <Item id="item_472" value="author(Damian_McNicholl)">
            <Extension name="field" value="author"/>
            <Extension name="value" value="Damian_McNicholl"/>
        </Item>
        <Item id="item_473" value="author(Dan_Brown)">
            <Extension name="field" value="author"/>
            <Extension name="value" value="Dan_Brown"/>
        </Item>
        <Item id="item_474" value="author(Dan_Koeppel)">
            <Extension name="field" value="author"/>
            <Extension name="value" value="Dan_Koeppel"/>
        </Item>
        <Item id="item_475" value="author(Dan_Rhodes)">
            <Extension name="field" value="author"/>
            <Extension name="value" value="Dan_Rhodes"/>
        </Item>
        <Item id="item_476" value="author(Dan_Savage)">
            <Extension name="field" value="author"/>
            <Extension name="value" value="Dan_Savage"/>
        </Item>
        <Item id="item_477" value="author(Dan_Simmons)">
            <Extension name="field" value="author"/>
            <Extension name="value" value="Dan_Simmons"/>
        </Item>
        <Item id="item_478" value="author(Dan_Wells__author_)">
            <Extension name="field" value="author"/>
            <Extension name="value" value="Dan_Wells__author_"/>
        </Item>
        <Item id="item_479" value="author(Dana_Kramer_Rolls)">
            <Extension name="field" value="author"/>
            <Extension name="value" value="Dana_Kramer_Rolls"/>
        </Item>
        <Item id="item_480" value="author(Daniel_Clowes)">
            <Extension name="field" value="author"/>
            <Extension name="value" value="Daniel_Clowes"/>
        </Item>
        <Item id="item_481" value="author(Daniel_Defoe)">
            <Extension name="field" value="author"/>
            <Extension name="value" value="Daniel_Defoe"/>
        </Item>
        <Item id="item_482" value="author(Daniel_Dennett)">
            <Extension name="field" value="author"/>
            <Extension name="value" value="Daniel_Dennett"/>
        </Item>
        <Item id="item_483" value="author(Daniel_Gilbert__psychologist_)">
            <Extension name="field" value="author"/>
            <Extension name="value" value="Daniel_Gilbert__psychologist_"/>
        </Item>
        <Item id="item_484" value="author(Daniel_Handler)">
            <Extension name="field" value="author"/>
            <Extension name="value" value="Daniel_Handler"/>
        </Item>
        <Item id="item_485" value="author(Daniel_Kehlmann)">
            <Extension name="field" value="author"/>
            <Extension name="value" value="Daniel_Kehlmann"/>
        </Item>
        <Item id="item_486" value="author(Daniel_Keyes)">
            <Extension name="field" value="author"/>
            <Extension name="value" value="Daniel_Keyes"/>
        </Item>
        <Item id="item_487" value="author(Daniel_Pennac)">
            <Extension name="field" value="author"/>
            <Extension name="value" value="Daniel_Pennac"/>
        </Item>
        <Item id="item_488" value="author(Daniel_Pinkwater)">
            <Extension name="field" value="author"/>
            <Extension name="value" value="Daniel_Pinkwater"/>
        </Item>
        <Item id="item_489" value="author(Daniel_Quinn)">
            <Extension name="field" value="author"/>
            <Extension name="value" value="Daniel_Quinn"/>
        </Item>
        <Item id="item_490" value="author(Daniel_Silva__novelist_)">
            <Extension name="field" value="author"/>
            <Extension name="value" value="Daniel_Silva__novelist_"/>
        </Item>
        <Item id="item_491" value="author(Daniel_Wallace__author_)">
            <Extension name="field" value="author"/>
            <Extension name="value" value="Daniel_Wallace__author_"/>
        </Item>
        <Item id="item_492" value="author(Daphne_du_Maurier)">
            <Extension name="field" value="author"/>
            <Extension name="value" value="Daphne_du_Maurier"/>
        </Item>
        <Item id="item_493" value="author(Darrell_Huff)">
            <Extension name="field" value="author"/>
            <Extension name="value" value="Darrell_Huff"/>
        </Item>
        <Item id="item_494" value="author(Darren_Shan)">
            <Extension name="field" value="author"/>
            <Extension name="value" value="Darren_Shan"/>
        </Item>
        <Item id="item_495" value="author(Dashiell_Hammett)">
            <Extension name="field" value="author"/>
            <Extension name="value" value="Dashiell_Hammett"/>
        </Item>
        <Item id="item_496" value="author(Dav_Pilkey)">
            <Extension name="field" value="author"/>
            <Extension name="value" value="Dav_Pilkey"/>
        </Item>
        <Item id="item_497" value="author(Dave_Barry)">
            <Extension name="field" value="author"/>
            <Extension name="value" value="Dave_Barry"/>
        </Item>
        <Item id="item_498" value="author(Dave_Duncan__writer_)">
            <Extension name="field" value="author"/>
            <Extension name="value" value="Dave_Duncan__writer_"/>
        </Item>
        <Item id="item_499" value="author(Dave_Eggers)">
            <Extension name="field" value="author"/>
            <Extension name="value" value="Dave_Eggers"/>
        </Item>
        <Item id="item_500" value="author(Dave_Gorman)">
            <Extension name="field" value="author"/>
            <Extension name="value" value="Dave_Gorman"/>
        </Item>
        <Item id="item_501" value="author(Dave_Grossman__author_)">
            <Extension name="field" value="author"/>
            <Extension name="value" value="Dave_Grossman__author_"/>
        </Item>
        <Item id="item_502" value="author(Dave_Luckett)">
            <Extension name="field" value="author"/>
            <Extension name="value" value="Dave_Luckett"/>
        </Item>
        <Item id="item_503" value="author(Dave_Wolverton)">
            <Extension name="field" value="author"/>
            <Extension name="value" value="Dave_Wolverton"/>
        </Item>
        <Item id="item_504" value="author(David_Allen_Sibley)">
            <Extension name="field" value="author"/>
            <Extension name="value" value="David_Allen_Sibley"/>
        </Item>
        <Item id="item_505" value="author(David_Almond)">
            <Extension name="field" value="author"/>
            <Extension name="value" value="David_Almond"/>
        </Item>
        <Item id="item_506" value="author(David_Ascher)">
            <Extension name="field" value="author"/>
            <Extension name="value" value="David_Ascher"/>
        </Item>
        <Item id="item_507" value="author(David_Baldacci)">
            <Extension name="field" value="author"/>
            <Extension name="value" value="David_Baldacci"/>
        </Item>
        <Item id="item_508" value="author(David_Barr_Chilton)">
            <Extension name="field" value="author"/>
            <Extension name="value" value="David_Barr_Chilton"/>
        </Item>
        <Item id="item_509" value="author(David_Berman__musician_)">
            <Extension name="field" value="author"/>
            <Extension name="value" value="David_Berman__musician_"/>
        </Item>
        <Item id="item_510" value="author(David_Bradley__novelist_)">
            <Extension name="field" value="author"/>
            <Extension name="value" value="David_Bradley__novelist_"/>
        </Item>
        <Item id="item_511" value="author(David_Brin)">
            <Extension name="field" value="author"/>
            <Extension name="value" value="David_Brin"/>
        </Item>
        <Item id="item_512" value="author(David_Browne)">
            <Extension name="field" value="author"/>
            <Extension name="value" value="David_Browne"/>
        </Item>
        <Item id="item_513" value="author(David_Clement_Davies)">
            <Extension name="field" value="author"/>
            <Extension name="value" value="David_Clement_Davies"/>
        </Item>
        <Item id="item_514" value="author(David_Crystal)">
            <Extension name="field" value="author"/>
            <Extension name="value" value="David_Crystal"/>
        </Item>
        <Item id="item_515" value="author(David_D__Burns)">
            <Extension name="field" value="author"/>
            <Extension name="value" value="David_D__Burns"/>
        </Item>
        <Item id="item_516" value="author(David_Drake)">
            <Extension name="field" value="author"/>
            <Extension name="value" value="David_Drake"/>
        </Item>
        <Item id="item_517" value="author(David_Eddings)">
            <Extension name="field" value="author"/>
            <Extension name="value" value="David_Eddings"/>
        </Item>
        <Item id="item_518" value="author(David_Foster_Wallace)">
            <Extension name="field" value="author"/>
            <Extension name="value" value="David_Foster_Wallace"/>
        </Item>
        <Item id="item_519" value="author(David_Garnett)">
            <Extension name="field" value="author"/>
            <Extension name="value" value="David_Garnett"/>
        </Item>
        <Item id="item_520" value="author(David_Gemmell)">
            <Extension name="field" value="author"/>
            <Extension name="value" value="David_Gemmell"/>
        </Item>
